<?xml version="1.0"?>
<opencv_storage>
<cascade>
  <stageType>BOOST</stageType>
  <featureType>HAAR</featureType>
  <height>24</height>
  <width>24</width>
  <stageParams>
    <boostType>GAB</boostType>
    <minHitRate>9.9500000476837158e-01</minHitRate>
    <maxFalseAlarm>5.0000000000000000e-01</maxFalseAlarm>
    <weightTrimRate>9.4999999999999996e-01</weightTrimRate>
    <maxDepth>1</maxDepth>
    <maxWeakCount>100</maxWeakCount></stageParams>
  <featureParams>
    <maxCatCount>0</maxCatCount>
    <featSize>1</featSize>
    <mode>BASIC</mode></featureParams>
  <stageNum>20</stageNum>
  <stages>
    <!-- stage 0 -->
    <_>
      <maxWeakCount>3</maxWeakCount>
      <stageThreshold>-6.8557590246200562e-01</stageThreshold>
      <weakClassifiers>
        <_>
          <internalNodes>
            0 -1 72 -2.9305996373295784e-02</internalNodes>
          <leafValues>
            8.8888889551162720e-01 -6.1475408077239990e-01</leafValues></_>
        <_>
          <internalNodes>
            0 -1 96 -5.8341515250504017e-04</internalNodes>
          <leafValues>
            -8.9172929525375366e-01 3.5836720466613770e-01</leafValues></_>
        <_>
          <internalNodes>
            0 -1 50 -2.8511971235275269e-02</internalNodes>
          <leafValues>
            9.1325449943542480e-01 -4.2918905615806580e-01</leafValues></_></weakClassifiers></_>
    <!-- stage 1 -->
    <_>
      <maxWeakCount>4</maxWeakCount>
      <stageThreshold>-8.3399206399917603e-01</stageThreshold>
      <weakClassifiers>
        <_>
          <internalNodes>
            0 -1 86 -5.3395666182041168e-02</internalNodes>
          <leafValues>
            8.7755101919174194e-01 -5.8232933282852173e-01</leafValues></_>
        <_>
          <internalNodes>
            0 -1 96 5.7893688790500164e-04</internalNodes>
          <leafValues>
            4.1247221827507019e-01 -8.0481946468353271e-01</leafValues></_>
        <_>
          <internalNodes>
            0 -1 97 6.1575777363032103e-04</internalNodes>
          <leafValues>
            2.9674959182739258e-01 -1.</leafValues></_>
        <_>
          <internalNodes>
            0 -1 21 -5.0708930939435959e-04</internalNodes>
          <leafValues>
            -9.6088457107543945e-01 3.2361570000648499e-01</leafValues></_></weakClassifiers></_>
    <!-- stage 2 -->
    <_>
      <maxWeakCount>3</maxWeakCount>
      <stageThreshold>-5.7030552625656128e-01</stageThreshold>
      <weakClassifiers>
        <_>
          <internalNodes>
            0 -1 97 -5.9219903778284788e-04</internalNodes>
          <leafValues>
            -9.2700731754302979e-01 1.5527950227260590e-01</leafValues></_>
        <_>
          <internalNodes>
            0 -1 13 -1.1981874704360962e-03</internalNodes>
          <leafValues>
            -9.3115252256393433e-01 2.0144703984260559e-01</leafValues></_>
        <_>
          <internalNodes>
            0 -1 93 -9.0998376253992319e-04</internalNodes>
          <leafValues>
            -1. 2.0556750893592834e-01</leafValues></_></weakClassifiers></_>
    <!-- stage 3 -->
    <_>
      <maxWeakCount>4</maxWeakCount>
      <stageThreshold>-3.8429963588714600e-01</stageThreshold>
      <weakClassifiers>
        <_>
          <internalNodes>
            0 -1 52 -4.4478990137577057e-02</internalNodes>
          <leafValues>
            7.4468082189559937e-01 -5.4581671953201294e-01</leafValues></_>
        <_>
          <internalNodes>
            0 -1 103 -1.3976164627820253e-03</internalNodes>
          <leafValues>
            -9.3227130174636841e-01 2.4152375757694244e-01</leafValues></_>
        <_>
          <internalNodes>
            0 -1 105 1.7897136276587844e-03</internalNodes>
          <leafValues>
            2.0317554473876953e-01 -9.1839462518692017e-01</leafValues></_>
        <_>
          <internalNodes>
            0 -1 58 -3.7698842585086823e-02</internalNodes>
          <leafValues>
            1. -2.8318223357200623e-01</leafValues></_></weakClassifiers></_>
    <!-- stage 4 -->
    <_>
      <maxWeakCount>5</maxWeakCount>
      <stageThreshold>-1.1479686498641968e+00</stageThreshold>
      <weakClassifiers>
        <_>
          <internalNodes>
            0 -1 10 -2.7563787996768951e-02</internalNodes>
          <leafValues>
            3.8461539149284363e-01 -8.1215471029281616e-01</leafValues></_>
        <_>
          <internalNodes>
            0 -1 55 -2.0989393815398216e-02</internalNodes>
          <leafValues>
            8.3530801534652710e-01 -4.2658317089080811e-01</leafValues></_>
        <_>
          <internalNodes>
            0 -1 63 -3.6580972373485565e-02</internalNodes>
          <leafValues>
            6.7039269208908081e-01 -4.2584264278411865e-01</leafValues></_>
        <_>
          <internalNodes>
            0 -1 60 -1.6192328184843063e-02</internalNodes>
          <leafValues>
            8.8969922065734863e-01 -3.2444021105766296e-01</leafValues></_>
        <_>
          <internalNodes>
            0 -1 77 -3.5488037392497063e-03</internalNodes>
          <leafValues>
            8.4105205535888672e-01 -2.3517364263534546e-01</leafValues></_></weakClassifiers></_>
    <!-- stage 5 -->
    <_>
      <maxWeakCount>6</maxWeakCount>
      <stageThreshold>-7.2280782461166382e-01</stageThreshold>
      <weakClassifiers>
        <_>
          <internalNodes>
            0 -1 71 -5.2558019757270813e-02</internalNodes>
          <leafValues>
            1. -5.3846156597137451e-01</leafValues></_>
        <_>
          <internalNodes>
            0 -1 50 -3.1192328780889511e-02</internalNodes>
          <leafValues>
            7.9805040359497070e-01 -2.9829177260398865e-01</leafValues></_>
        <_>
          <internalNodes>
            0 -1 0 -3.6754187941551208e-01</internalNodes>
          <leafValues>
            -1. 2.5155794620513916e-01</leafValues></_>
        <_>
          <internalNodes>
            0 -1 76 -1.5595704317092896e-02</internalNodes>
          <leafValues>
            9.5294016599655151e-01 -2.8309127688407898e-01</leafValues></_>
        <_>
          <internalNodes>
            0 -1 74 9.6836369484663010e-03</internalNodes>
          <leafValues>
            -2.8247192502021790e-01 7.1663373708724976e-01</leafValues></_>
        <_>
          <internalNodes>
            0 -1 40 1.2772597372531891e-02</internalNodes>
          <leafValues>
            4.3373489379882813e-01 -5.7115489244461060e-01</leafValues></_></weakClassifiers></_>
    <!-- stage 6 -->
    <_>
      <maxWeakCount>5</maxWeakCount>
      <stageThreshold>-7.9943561553955078e-01</stageThreshold>
      <weakClassifiers>
        <_>
          <internalNodes>
            0 -1 36 -4.8432052135467529e-02</internalNodes>
          <leafValues>
            7.5000000000000000e-01 -5.5199998617172241e-01</leafValues></_>
        <_>
          <internalNodes>
            0 -1 30 -3.0280433595180511e-02</internalNodes>
          <leafValues>
            7.2520333528518677e-01 -3.3792433142662048e-01</leafValues></_>
        <_>
          <internalNodes>
            0 -1 49 -1.0501794517040253e-02</internalNodes>
          <leafValues>
            7.7667015790939331e-01 -3.5177922248840332e-01</leafValues></_>
        <_>
          <internalNodes>
            0 -1 25 -2.1455748379230499e-01</internalNodes>
          <leafValues>
            -9.3145239353179932e-01 2.9994496703147888e-01</leafValues></_>
        <_>
          <internalNodes>
            0 -1 2 7.6517430134117603e-03</internalNodes>
          <leafValues>
            2.6847580075263977e-01 -9.2080467939376831e-01</leafValues></_></weakClassifiers></_>
    <!-- stage 7 -->
    <_>
      <maxWeakCount>5</maxWeakCount>
      <stageThreshold>-1.1098300218582153e+00</stageThreshold>
      <weakClassifiers>
        <_>
          <internalNodes>
            0 -1 85 -7.9354681074619293e-02</internalNodes>
          <leafValues>
            9.3939393758773804e-01 -5.0188678503036499e-01</leafValues></_>
        <_>
          <internalNodes>
            0 -1 49 -1.6771407797932625e-02</internalNodes>
          <leafValues>
            6.9823402166366577e-01 -3.5050374269485474e-01</leafValues></_>
        <_>
          <internalNodes>
            0 -1 5 2.8700135648250580e-02</internalNodes>
          <leafValues>
            3.2654598355293274e-01 -8.1899261474609375e-01</leafValues></_>
        <_>
          <internalNodes>
            0 -1 33 -1.8286921549588442e-03</internalNodes>
          <leafValues>
            -6.7998343706130981e-01 2.8462320566177368e-01</leafValues></_>
        <_>
          <internalNodes>
            0 -1 106 1.1898130178451538e-02</internalNodes>
          <leafValues>
            1.9279873371124268e-01 -9.3395662307739258e-01</leafValues></_></weakClassifiers></_>
    <!-- stage 8 -->
    <_>
      <maxWeakCount>7</maxWeakCount>
      <stageThreshold>-8.2883417606353760e-01</stageThreshold>
      <weakClassifiers>
        <_>
          <internalNodes>
            0 -1 64 -1.0135555267333984e-01</internalNodes>
          <leafValues>
            9.4594591856002808e-01 -5.2490419149398804e-01</leafValues></_>
        <_>
          <internalNodes>
            0 -1 4 -5.8350944891571999e-03</internalNodes>
          <leafValues>
            -6.3331669569015503e-01 3.4877279400825500e-01</leafValues></_>
        <_>
          <internalNodes>
            0 -1 35 -1.7801788635551929e-04</internalNodes>
          <leafValues>
            -5.1748025417327881e-01 4.0511503815650940e-01</leafValues></_>
        <_>
          <internalNodes>
            0 -1 67 1.6235077055171132e-05</internalNodes>
          <leafValues>
            3.7162932753562927e-01 -5.1663118600845337e-01</leafValues></_>
        <_>
          <internalNodes>
            0 -1 23 -1.2372536584734917e-03</internalNodes>
          <leafValues>
            -9.7732424736022949e-01 2.0319104194641113e-01</leafValues></_>
        <_>
          <internalNodes>
            0 -1 28 2.7524050325155258e-02</internalNodes>
          <leafValues>
            -2.5418290495872498e-01 8.5934817790985107e-01</leafValues></_>
        <_>
          <internalNodes>
            0 -1 78 -2.0035977941006422e-03</internalNodes>
          <leafValues>
            5.2622950077056885e-01 -3.8581982254981995e-01</leafValues></_></weakClassifiers></_>
    <!-- stage 9 -->
    <_>
      <maxWeakCount>6</maxWeakCount>
      <stageThreshold>-6.2718880176544189e-01</stageThreshold>
      <weakClassifiers>
        <_>
          <internalNodes>
            0 -1 73 -3.8329031318426132e-02</internalNodes>
          <leafValues>
            6.6666668653488159e-01 -5.0781250000000000e-01</leafValues></_>
        <_>
          <internalNodes>
            0 -1 17 -4.7887163236737251e-04</internalNodes>
          <leafValues>
            -8.9415562152862549e-01 1.8991532921791077e-01</leafValues></_>
        <_>
          <internalNodes>
            0 -1 6 3.7825382314622402e-03</internalNodes>
          <leafValues>
            1.8827231228351593e-01 -7.6473337411880493e-01</leafValues></_>
        <_>
          <internalNodes>
            0 -1 56 -1.5997262671589851e-02</internalNodes>
          <leafValues>
            5.6393474340438843e-01 -3.4175300598144531e-01</leafValues></_>
        <_>
          <internalNodes>
            0 -1 44 1.4862250827718526e-04</internalNodes>
          <leafValues>
            -3.8448935747146606e-01 4.6893545985221863e-01</leafValues></_>
        <_>
          <internalNodes>
            0 -1 92 -1.5562669432256371e-04</internalNodes>
          <leafValues>
            4.5932453870773315e-01 -4.3243563175201416e-01</leafValues></_></weakClassifiers></_>
    <!-- stage 10 -->
    <_>
      <maxWeakCount>5</maxWeakCount>
      <stageThreshold>-7.6986330747604370e-01</stageThreshold>
      <weakClassifiers>
        <_>
          <internalNodes>
            0 -1 71 -6.8383730947971344e-02</internalNodes>
          <leafValues>
            8.0645161867141724e-01 -4.7565543651580811e-01</leafValues></_>
        <_>
          <internalNodes>
            0 -1 100 -1.5021339058876038e-03</internalNodes>
          <leafValues>
            -1. 1.4327220618724823e-01</leafValues></_>
        <_>
          <internalNodes>
            0 -1 7 -6.1597833409905434e-03</internalNodes>
          <leafValues>
            -5.6195759773254395e-01 3.1566572189331055e-01</leafValues></_>
        <_>
          <internalNodes>
            0 -1 104 -1.9947555847465992e-04</internalNodes>
          <leafValues>
            -9.4084125757217407e-01 1.7681345343589783e-01</leafValues></_>
        <_>
          <internalNodes>
            0 -1 108 -7.4239581590518355e-04</internalNodes>
          <leafValues>
            -9.2995923757553101e-01 1.9430077075958252e-01</leafValues></_></weakClassifiers></_>
    <!-- stage 11 -->
    <_>
      <maxWeakCount>5</maxWeakCount>
      <stageThreshold>-1.0299249887466431e+00</stageThreshold>
      <weakClassifiers>
        <_>
          <internalNodes>
            0 -1 89 -1.1716550216078758e-02</internalNodes>
          <leafValues>
            8.5185188055038452e-01 -4.6125462651252747e-01</leafValues></_>
        <_>
          <internalNodes>
            0 -1 101 -3.8965546991676092e-04</internalNodes>
          <leafValues>
            -8.5199803113937378e-01 2.2672770917415619e-01</leafValues></_>
        <_>
          <internalNodes>
            0 -1 15 1.5246530529111624e-03</internalNodes>
          <leafValues>
            1.7774845659732819e-01 -8.7541532516479492e-01</leafValues></_>
        <_>
          <internalNodes>
            0 -1 34 -1.5471968799829483e-03</internalNodes>
          <leafValues>
            -7.7181571722030640e-01 2.0936395227909088e-01</leafValues></_>
        <_>
          <internalNodes>
            0 -1 65 -6.8453592248260975e-03</internalNodes>
          <leafValues>
            7.4524134397506714e-01 -2.0133087038993835e-01</leafValues></_></weakClassifiers></_>
    <!-- stage 12 -->
    <_>
      <maxWeakCount>6</maxWeakCount>
      <stageThreshold>-5.3119677305221558e-01</stageThreshold>
      <weakClassifiers>
        <_>
          <internalNodes>
            0 -1 70 -7.7854983508586884e-02</internalNodes>
          <leafValues>
            7.1428573131561279e-01 -4.8288974165916443e-01</leafValues></_>
        <_>
          <internalNodes>
            0 -1 84 1.3589765876531601e-02</internalNodes>
          <leafValues>
            -2.4104221165180206e-01 6.9143831729888916e-01</leafValues></_>
        <_>
          <internalNodes>
            0 -1 80 -9.7304712980985641e-03</internalNodes>
          <leafValues>
            7.8017908334732056e-01 -1.9696789979934692e-01</leafValues></_>
        <_>
          <internalNodes>
            0 -1 1 -2.9354089498519897e-01</internalNodes>
          <leafValues>
            -8.8704931735992432e-01 2.0786629617214203e-01</leafValues></_>
        <_>
          <internalNodes>
            0 -1 16 -2.0194915123283863e-03</internalNodes>
          <leafValues>
            -9.4680285453796387e-01 2.0498345792293549e-01</leafValues></_>
        <_>
          <internalNodes>
            0 -1 24 -3.9007081650197506e-03</internalNodes>
          <leafValues>
            -8.8998687267303467e-01 1.5149267017841339e-01</leafValues></_></weakClassifiers></_>
    <!-- stage 13 -->
    <_>
      <maxWeakCount>7</maxWeakCount>
      <stageThreshold>-8.9939612150192261e-01</stageThreshold>
      <weakClassifiers>
        <_>
          <internalNodes>
            0 -1 54 2.3443344980478287e-02</internalNodes>
          <leafValues>
            -4.6323528885841370e-01 9.2307692766189575e-01</leafValues></_>
        <_>
          <internalNodes>
            0 -1 53 6.0742994537577033e-04</internalNodes>
          <leafValues>
            -4.4436582922935486e-01 4.1664463281631470e-01</leafValues></_>
        <_>
          <internalNodes>
            0 -1 41 -3.6245542578399181e-03</internalNodes>
          <leafValues>
            -5.4459559917449951e-01 3.1520238518714905e-01</leafValues></_>
        <_>
          <internalNodes>
            0 -1 61 -1.6788180917501450e-02</internalNodes>
          <leafValues>
            7.2502774000167847e-01 -2.3880091309547424e-01</leafValues></_>
        <_>
          <internalNodes>
            0 -1 38 -3.2611121423542500e-04</internalNodes>
          <leafValues>
            -8.2121551036834717e-01 2.7536046504974365e-01</leafValues></_>
        <_>
          <internalNodes>
            0 -1 3 1.4961244305595756e-03</internalNodes>
          <leafValues>
            -4.8879840970039368e-01 3.7753829360008240e-01</leafValues></_>
        <_>
          <internalNodes>
            0 -1 102 5.8199279010295868e-04</internalNodes>
          <leafValues>
            1.7686799168586731e-01 -8.1979966163635254e-01</leafValues></_></weakClassifiers></_>
    <!-- stage 14 -->
    <_>
      <maxWeakCount>7</maxWeakCount>
      <stageThreshold>-9.0721708536148071e-01</stageThreshold>
      <weakClassifiers>
        <_>
          <internalNodes>
            0 -1 81 1.1330651119351387e-02</internalNodes>
          <leafValues>
            -4.4404330849647522e-01 1.</leafValues></_>
        <_>
          <internalNodes>
            0 -1 14 -1.5790466219186783e-02</internalNodes>
          <leafValues>
            2.5823423266410828e-01 -6.2114030122756958e-01</leafValues></_>
        <_>
          <internalNodes>
            0 -1 87 7.2655937401577830e-04</internalNodes>
          <leafValues>
            -2.9635199904441833e-01 5.6992882490158081e-01</leafValues></_>
        <_>
          <internalNodes>
            0 -1 29 -1.9261680427007377e-04</internalNodes>
          <leafValues>
            -8.5778969526290894e-01 2.0304264128208160e-01</leafValues></_>
        <_>
          <internalNodes>
            0 -1 43 -1.2138951569795609e-02</internalNodes>
          <leafValues>
            4.7942239046096802e-01 -3.4496179223060608e-01</leafValues></_>
        <_>
          <internalNodes>
            0 -1 37 -4.4599687680602074e-03</internalNodes>
          <leafValues>
            6.5443724393844604e-01 -2.6071071624755859e-01</leafValues></_>
        <_>
          <internalNodes>
            0 -1 32 -7.8106846194714308e-04</internalNodes>
          <leafValues>
            -7.5959795713424683e-01 2.1402207016944885e-01</leafValues></_></weakClassifiers></_>
    <!-- stage 15 -->
    <_>
      <maxWeakCount>7</maxWeakCount>
      <stageThreshold>-8.2977157831192017e-01</stageThreshold>
      <weakClassifiers>
        <_>
          <internalNodes>
            0 -1 66 -3.2263487577438354e-02</internalNodes>
          <leafValues>
            8.2608693838119507e-01 -4.3999999761581421e-01</leafValues></_>
        <_>
          <internalNodes>
            0 -1 69 -4.8318997025489807e-02</internalNodes>
          <leafValues>
            8.3457595109939575e-01 -2.1165309846401215e-01</leafValues></_>
        <_>
          <internalNodes>
            0 -1 90 1.1702163610607386e-03</internalNodes>
          <leafValues>
            2.0728003978729248e-01 -1.</leafValues></_>
        <_>
          <internalNodes>
            0 -1 11 -5.7051720796152949e-04</internalNodes>
          <leafValues>
            4.1196250915527344e-01 -3.6240065097808838e-01</leafValues></_>
        <_>
          <internalNodes>
            0 -1 88 -4.4212688226252794e-04</internalNodes>
          <leafValues>
            4.7119891643524170e-01 -3.3560094237327576e-01</leafValues></_>
        <_>
          <internalNodes>
            0 -1 46 -3.3426529262214899e-04</internalNodes>
          <leafValues>
            -8.3572405576705933e-01 1.7058186233043671e-01</leafValues></_>
        <_>
          <internalNodes>
            0 -1 12 -2.3640078143216670e-04</internalNodes>
          <leafValues>
            3.7396395206451416e-01 -4.1650533676147461e-01</leafValues></_></weakClassifiers></_>
    <!-- stage 16 -->
    <_>
      <maxWeakCount>6</maxWeakCount>
      <stageThreshold>-6.5169453620910645e-01</stageThreshold>
      <weakClassifiers>
        <_>
          <internalNodes>
            0 -1 27 -4.3746314942836761e-02</internalNodes>
          <leafValues>
            5.5555558204650879e-01 -4.6564885973930359e-01</leafValues></_>
        <_>
          <internalNodes>
            0 -1 57 1.3015884906053543e-04</internalNodes>
          <leafValues>
            -3.3440449833869934e-01 4.1126582026481628e-01</leafValues></_>
        <_>
          <internalNodes>
            0 -1 51 2.3506614379584789e-03</internalNodes>
          <leafValues>
            1.2305202335119247e-01 -1.</leafValues></_>
        <_>
          <internalNodes>
            0 -1 9 -4.4433930888772011e-03</internalNodes>
          <leafValues>
            -9.4352906942367554e-01 1.3842190802097321e-01</leafValues></_>
        <_>
          <internalNodes>
            0 -1 48 2.4171233177185059e-01</internalNodes>
          <leafValues>
            1.1104653775691986e-01 -9.5350199937820435e-01</leafValues></_>
        <_>
          <internalNodes>
            0 -1 42 -9.0539574623107910e-02</internalNodes>
          <leafValues>
            -9.4470924139022827e-01 1.1211902648210526e-01</leafValues></_></weakClassifiers></_>
    <!-- stage 17 -->
    <_>
      <maxWeakCount>8</maxWeakCount>
      <stageThreshold>-1.0076156854629517e+00</stageThreshold>
      <weakClassifiers>
        <_>
          <internalNodes>
            0 -1 83 9.8891593515872955e-03</internalNodes>
          <leafValues>
            -4.5925927162170410e-01 7.8571426868438721e-01</leafValues></_>
        <_>
          <internalNodes>
            0 -1 82 2.8904988430440426e-03</internalNodes>
          <leafValues>
            -4.2547932267189026e-01 3.9628821611404419e-01</leafValues></_>
        <_>
          <internalNodes>
            0 -1 98 -1.6148767899721861e-03</internalNodes>
          <leafValues>
            5.8907574415206909e-01 -2.1439228951931000e-01</leafValues></_>
        <_>
          <internalNodes>
            0 -1 19 1.7885167617350817e-03</internalNodes>
          <leafValues>
            1.9437097012996674e-01 -7.9835987091064453e-01</leafValues></_>
        <_>
          <internalNodes>
            0 -1 62 -2.5601850356906652e-03</internalNodes>
          <leafValues>
            4.6764829754829407e-01 -3.1520399451255798e-01</leafValues></_>
        <_>
          <internalNodes>
            0 -1 99 5.1493477076292038e-04</internalNodes>
          <leafValues>
            -3.1147870421409607e-01 4.4793006777763367e-01</leafValues></_>
        <_>
          <internalNodes>
            0 -1 107 -1.3372265966609120e-03</internalNodes>
          <leafValues>
            -7.7127027511596680e-01 1.8545708060264587e-01</leafValues></_>
        <_>
          <internalNodes>
            0 -1 91 6.5715122036635876e-04</internalNodes>
          <leafValues>
            -3.2066085934638977e-01 4.9162912368774414e-01</leafValues></_></weakClassifiers></_>
    <!-- stage 18 -->
    <_>
      <maxWeakCount>7</maxWeakCount>
      <stageThreshold>-9.9615007638931274e-01</stageThreshold>
      <weakClassifiers>
        <_>
          <internalNodes>
            0 -1 75 -1.3988371938467026e-02</internalNodes>
          <leafValues>
            6.1111110448837280e-01 -4.7328245639801025e-01</leafValues></_>
        <_>
          <internalNodes>
            0 -1 95 -1.4334039587993175e-04</internalNodes>
          <leafValues>
            4.3349218368530273e-01 -3.6227104067802429e-01</leafValues></_>
        <_>
          <internalNodes>
            0 -1 22 -4.3378520058467984e-04</internalNodes>
          <leafValues>
            3.8997596502304077e-01 -4.1349390149116516e-01</leafValues></_>
        <_>
          <internalNodes>
            0 -1 18 1.3178019435144961e-04</internalNodes>
          <leafValues>
            -4.4095414876937866e-01 3.7818190455436707e-01</leafValues></_>
        <_>
          <internalNodes>
            0 -1 68 6.9233000278472900e-02</internalNodes>
          <leafValues>
            1.5740869939327240e-01 -9.6551984548568726e-01</leafValues></_>
        <_>
          <internalNodes>
            0 -1 39 6.8034202558919787e-04</internalNodes>
          <leafValues>
            1.7388874292373657e-01 -8.1861013174057007e-01</leafValues></_>
        <_>
          <internalNodes>
            0 -1 26 -1.0848672536667436e-04</internalNodes>
          <leafValues>
            3.6988753080368042e-01 -4.3320924043655396e-01</leafValues></_></weakClassifiers></_>
    <!-- stage 19 -->
    <_>
      <maxWeakCount>8</maxWeakCount>
      <stageThreshold>-7.2079664468765259e-01</stageThreshold>
      <weakClassifiers>
        <_>
          <internalNodes>
            0 -1 47 -3.5425581037998199e-02</internalNodes>
          <leafValues>
            8.2608693838119507e-01 -4.3999999761581421e-01</leafValues></_>
        <_>
          <internalNodes>
            0 -1 94 -1.3167265569791198e-04</internalNodes>
          <leafValues>
            4.0449407696723938e-01 -3.4686830639839172e-01</leafValues></_>
        <_>
          <internalNodes>
            0 -1 59 -2.0714648067951202e-02</internalNodes>
          <leafValues>
            6.4090925455093384e-01 -1.8824078142642975e-01</leafValues></_>
        <_>
          <internalNodes>
            0 -1 79 1.4616482658311725e-03</internalNodes>
          <leafValues>
            1.5873645246028900e-01 -9.1395014524459839e-01</leafValues></_>
        <_>
          <internalNodes>
            0 -1 8 2.0977717940695584e-04</internalNodes>
          <leafValues>
            -3.7819990515708923e-01 3.8738274574279785e-01</leafValues></_>
        <_>
          <internalNodes>
            0 -1 31 -5.5448687635362148e-03</internalNodes>
          <leafValues>
            7.8804677724838257e-01 -1.3468094170093536e-01</leafValues></_>
        <_>
          <internalNodes>
            0 -1 45 -2.6677832938730717e-03</internalNodes>
          <leafValues>
            4.7247651219367981e-01 -3.0578792095184326e-01</leafValues></_>
        <_>
          <internalNodes>
            0 -1 20 -1.0469719767570496e-02</internalNodes>
          <leafValues>
            -9.1921234130859375e-01 1.6288240253925323e-01</leafValues></_></weakClassifiers></_></stages>
  <features>
    <_>
      <rects>
        <_>
          0 0 24 21 -1.</_>
        <_>
          12 0 12 21 2.</_></rects>
      <tilted>0</tilted></_>
    <_>
      <rects>
        <_>
          0 0 18 20 -1.</_>
        <_>
          0 10 18 10 2.</_></rects>
      <tilted>0</tilted></_>
    <_>
      <rects>
        <_>
          0 1 1 20 -1.</_>
        <_>
          0 11 1 10 2.</_></rects>
      <tilted>0</tilted></_>
    <_>
      <rects>
        <_>
          0 1 24 4 -1.</_>
        <_>
          0 3 24 2 2.</_></rects>
      <tilted>0</tilted></_>
    <_>
      <rects>
        <_>
          0 2 16 2 -1.</_>
        <_>
          8 2 8 2 2.</_></rects>
      <tilted>0</tilted></_>
    <_>
      <rects>
        <_>
          0 2 16 22 -1.</_>
        <_>
          8 2 8 22 2.</_></rects>
      <tilted>0</tilted></_>
    <_>
      <rects>
        <_>
          0 3 1 20 -1.</_>
        <_>
          0 13 1 10 2.</_></rects>
      <tilted>0</tilted></_>
    <_>
      <rects>
        <_>
          0 4 16 2 -1.</_>
        <_>
          8 4 8 2 2.</_></rects>
      <tilted>0</tilted></_>
    <_>
      <rects>
        <_>
          0 5 12 2 -1.</_>
        <_>
          0 5 6 1 2.</_>
        <_>
          6 6 6 1 2.</_></rects>
      <tilted>0</tilted></_>
    <_>
      <rects>
        <_>
          0 6 3 6 -1.</_>
        <_>
          0 8 3 2 3.</_></rects>
      <tilted>0</tilted></_>
    <_>
      <rects>
        <_>
          0 7 14 8 -1.</_>
        <_>
          7 7 7 8 2.</_></rects>
      <tilted>0</tilted></_>
    <_>
      <rects>
        <_>
          0 12 4 12 -1.</_>
        <_>
          0 12 2 6 2.</_>
        <_>
          2 18 2 6 2.</_></rects>
      <tilted>0</tilted></_>
    <_>
      <rects>
        <_>
          0 19 14 2 -1.</_>
        <_>
          0 19 7 1 2.</_>
        <_>
          7 20 7 1 2.</_></rects>
      <tilted>0</tilted></_>
    <_>
      <rects>
        <_>
          1 1 3 5 -1.</_>
        <_>
          2 1 1 5 3.</_></rects>
      <tilted>0</tilted></_>
    <_>
      <rects>
        <_>
          1 1 22 12 -1.</_>
        <_>
          1 7 22 6 2.</_></rects>
      <tilted>0</tilted></_>
    <_>
      <rects>
        <_>
          1 2 6 1 -1.</_>
        <_>
          3 2 2 1 3.</_></rects>
      <tilted>0</tilted></_>
    <_>
      <rects>
        <_>
          1 4 1 6 -1.</_>
        <_>
          1 6 1 2 3.</_></rects>
      <tilted>0</tilted></_>
    <_>
      <rects>
        <_>
          1 4 2 4 -1.</_>
        <_>
          1 4 1 2 2.</_>
        <_>
          2 6 1 2 2.</_></rects>
      <tilted>0</tilted></_>
    <_>
      <rects>
        <_>
          1 4 4 6 -1.</_>
        <_>
          1 4 2 3 2.</_>
        <_>
          3 7 2 3 2.</_></rects>
      <tilted>0</tilted></_>
    <_>
      <rects>
        <_>
          1 5 1 6 -1.</_>
        <_>
          1 7 1 2 3.</_></rects>
      <tilted>0</tilted></_>
    <_>
      <rects>
        <_>
          1 13 2 9 -1.</_>
        <_>
          1 16 2 3 3.</_></rects>
      <tilted>0</tilted></_>
    <_>
      <rects>
        <_>
          1 18 2 2 -1.</_>
        <_>
          1 18 1 1 2.</_>
        <_>
          2 19 1 1 2.</_></rects>
      <tilted>0</tilted></_>
    <_>
      <rects>
        <_>
          1 19 7 4 -1.</_>
        <_>
          1 21 7 2 2.</_></rects>
      <tilted>0</tilted></_>
    <_>
      <rects>
        <_>
          2 0 1 6 -1.</_>
        <_>
          2 2 1 2 3.</_></rects>
      <tilted>0</tilted></_>
    <_>
      <rects>
        <_>
          2 3 6 2 -1.</_>
        <_>
          4 3 2 2 3.</_></rects>
      <tilted>0</tilted></_>
    <_>
      <rects>
        <_>
          2 4 22 20 -1.</_>
        <_>
          2 14 22 10 2.</_></rects>
      <tilted>0</tilted></_>
    <_>
      <rects>
        <_>
          2 10 1 10 -1.</_>
        <_>
          2 15 1 5 2.</_></rects>
      <tilted>0</tilted></_>
    <_>
      <rects>
        <_>
          2 10 18 1 -1.</_>
        <_>
          8 10 6 1 3.</_></rects>
      <tilted>0</tilted></_>
    <_>
      <rects>
        <_>
          2 11 17 6 -1.</_>
        <_>
          2 13 17 2 3.</_></rects>
      <tilted>0</tilted></_>
    <_>
      <rects>
        <_>
          2 22 2 2 -1.</_>
        <_>
          2 22 1 1 2.</_>
        <_>
          3 23 1 1 2.</_></rects>
      <tilted>0</tilted></_>
    <_>
      <rects>
        <_>
          3 7 8 4 -1.</_>
        <_>
          7 7 4 4 2.</_></rects>
      <tilted>0</tilted></_>
    <_>
      <rects>
        <_>
          3 16 13 2 -1.</_>
        <_>
          3 17 13 1 2.</_></rects>
      <tilted>0</tilted></_>
    <_>
      <rects>
        <_>
          4 0 5 2 -1.</_>
        <_>
          4 1 5 1 2.</_></rects>
      <tilted>0</tilted></_>
    <_>
      <rects>
        <_>
          4 1 12 1 -1.</_>
        <_>
          8 1 4 1 3.</_></rects>
      <tilted>0</tilted></_>
    <_>
      <rects>
        <_>
          4 5 1 9 -1.</_>
        <_>
          4 8 1 3 3.</_></rects>
      <tilted>0</tilted></_>
    <_>
      <rects>
        <_>
          4 5 9 2 -1.</_>
        <_>
          4 6 9 1 2.</_></rects>
      <tilted>0</tilted></_>
    <_>
      <rects>
        <_>
          4 10 18 2 -1.</_>
        <_>
          10 10 6 2 3.</_></rects>
      <tilted>0</tilted></_>
    <_>
      <rects>
        <_>
          4 12 10 4 -1.</_>
        <_>
          4 12 5 2 2.</_>
        <_>
          9 14 5 2 2.</_></rects>
      <tilted>0</tilted></_>
    <_>
      <rects>
        <_>
          4 20 1 3 -1.</_>
        <_>
          4 21 1 1 3.</_></rects>
      <tilted>0</tilted></_>
    <_>
      <rects>
        <_>
          4 22 6 2 -1.</_>
        <_>
          4 22 3 1 2.</_>
        <_>
          7 23 3 1 2.</_></rects>
      <tilted>0</tilted></_>
    <_>
      <rects>
        <_>
          5 2 18 4 -1.</_>
        <_>
          14 2 9 4 2.</_></rects>
      <tilted>0</tilted></_>
    <_>
      <rects>
        <_>
          5 4 1 15 -1.</_>
        <_>
          5 9 1 5 3.</_></rects>
      <tilted>0</tilted></_>
    <_>
      <rects>
        <_>
          5 8 10 16 -1.</_>
        <_>
          5 16 10 8 2.</_></rects>
      <tilted>0</tilted></_>
    <_>
      <rects>
        <_>
          5 9 11 6 -1.</_>
        <_>
          5 11 11 2 3.</_></rects>
      <tilted>0</tilted></_>
    <_>
      <rects>
        <_>
          5 12 4 3 -1.</_>
        <_>
          7 12 2 3 2.</_></rects>
      <tilted>0</tilted></_>
    <_>
      <rects>
        <_>
          5 14 13 3 -1.</_>
        <_>
          5 15 13 1 3.</_></rects>
      <tilted>0</tilted></_>
    <_>
      <rects>
        <_>
          5 19 2 2 -1.</_>
        <_>
          5 19 1 1 2.</_>
        <_>
          6 20 1 1 2.</_></rects>
      <tilted>0</tilted></_>
    <_>
      <rects>
        <_>
          6 4 7 6 -1.</_>
        <_>
          6 6 7 2 3.</_></rects>
      <tilted>0</tilted></_>
    <_>
      <rects>
        <_>
          6 5 18 13 -1.</_>
        <_>
          15 5 9 13 2.</_></rects>
      <tilted>0</tilted></_>
    <_>
      <rects>
        <_>
          6 8 6 6 -1.</_>
        <_>
          6 8 3 3 2.</_>
        <_>
          9 11 3 3 2.</_></rects>
      <tilted>0</tilted></_>
    <_>
      <rects>
        <_>
          6 11 12 2 -1.</_>
        <_>
          10 11 4 2 3.</_></rects>
      <tilted>0</tilted></_>
    <_>
      <rects>
        <_>
          6 17 3 6 -1.</_>
        <_>
          7 17 1 6 3.</_></rects>
      <tilted>0</tilted></_>
    <_>
      <rects>
        <_>
          7 5 4 9 -1.</_>
        <_>
          7 8 4 3 3.</_></rects>
      <tilted>0</tilted></_>
    <_>
      <rects>
        <_>
          7 8 4 2 -1.</_>
        <_>
          9 8 2 2 2.</_></rects>
      <tilted>0</tilted></_>
    <_>
      <rects>
        <_>
          7 8 4 6 -1.</_>
        <_>
          7 8 2 3 2.</_>
        <_>
          9 11 2 3 2.</_></rects>
      <tilted>0</tilted></_>
    <_>
      <rects>
        <_>
          7 9 8 6 -1.</_>
        <_>
          7 9 4 3 2.</_>
        <_>
          11 12 4 3 2.</_></rects>
      <tilted>0</tilted></_>
    <_>
      <rects>
        <_>
          7 9 17 6 -1.</_>
        <_>
          7 11 17 2 3.</_></rects>
      <tilted>0</tilted></_>
    <_>
      <rects>
        <_>
          7 10 2 1 -1.</_>
        <_>
          8 10 1 1 2.</_></rects>
      <tilted>0</tilted></_>
    <_>
      <rects>
        <_>
          7 12 12 2 -1.</_>
        <_>
          11 12 4 2 3.</_></rects>
      <tilted>0</tilted></_>
    <_>
      <rects>
        <_>
          7 12 15 1 -1.</_>
        <_>
          12 12 5 1 3.</_></rects>
      <tilted>0</tilted></_>
    <_>
      <rects>
        <_>
          7 12 12 4 -1.</_>
        <_>
          7 12 6 2 2.</_>
        <_>
          13 14 6 2 2.</_></rects>
      <tilted>0</tilted></_>
    <_>
      <rects>
        <_>
          7 12 13 6 -1.</_>
        <_>
          7 14 13 2 3.</_></rects>
      <tilted>0</tilted></_>
    <_>
      <rects>
        <_>
          7 14 6 4 -1.</_>
        <_>
          7 16 6 2 2.</_></rects>
      <tilted>0</tilted></_>
    <_>
      <rects>
        <_>
          8 2 9 10 -1.</_>
        <_>
          8 7 9 5 2.</_></rects>
      <tilted>0</tilted></_>
    <_>
      <rects>
        <_>
          8 3 4 12 -1.</_>
        <_>
          8 7 4 4 3.</_></rects>
      <tilted>0</tilted></_>
    <_>
      <rects>
        <_>
          8 13 10 2 -1.</_>
        <_>
          8 13 5 1 2.</_>
        <_>
          13 14 5 1 2.</_></rects>
      <tilted>0</tilted></_>
    <_>
      <rects>
        <_>
          8 13 10 4 -1.</_>
        <_>
          8 13 5 2 2.</_>
        <_>
          13 15 5 2 2.</_></rects>
      <tilted>0</tilted></_>
    <_>
      <rects>
        <_>
          8 21 2 2 -1.</_>
        <_>
          8 21 1 1 2.</_>
        <_>
          9 22 1 1 2.</_></rects>
      <tilted>0</tilted></_>
    <_>
      <rects>
        <_>
          9 0 6 24 -1.</_>
        <_>
          9 8 6 8 3.</_></rects>
      <tilted>0</tilted></_>
    <_>
      <rects>
        <_>
          9 1 2 12 -1.</_>
        <_>
          9 5 2 4 3.</_></rects>
      <tilted>0</tilted></_>
    <_>
      <rects>
        <_>
          9 1 2 15 -1.</_>
        <_>
          9 6 2 5 3.</_></rects>
      <tilted>0</tilted></_>
    <_>
      <rects>
        <_>
          9 3 2 12 -1.</_>
        <_>
          9 7 2 4 3.</_></rects>
      <tilted>0</tilted></_>
    <_>
      <rects>
        <_>
          9 3 4 8 -1.</_>
        <_>
          9 7 4 4 2.</_></rects>
      <tilted>0</tilted></_>
    <_>
      <rects>
        <_>
          9 6 12 8 -1.</_>
        <_>
          9 6 6 4 2.</_>
        <_>
          15 10 6 4 2.</_></rects>
      <tilted>0</tilted></_>
    <_>
      <rects>
        <_>
          9 7 6 9 -1.</_>
        <_>
          9 10 6 3 3.</_></rects>
      <tilted>0</tilted></_>
    <_>
      <rects>
        <_>
          9 11 9 1 -1.</_>
        <_>
          12 11 3 1 3.</_></rects>
      <tilted>0</tilted></_>
    <_>
      <rects>
        <_>
          9 13 6 4 -1.</_>
        <_>
          9 13 3 2 2.</_>
        <_>
          12 15 3 2 2.</_></rects>
      <tilted>0</tilted></_>
    <_>
      <rects>
        <_>
          9 13 8 3 -1.</_>
        <_>
          9 14 8 1 3.</_></rects>
      <tilted>0</tilted></_>
    <_>
      <rects>
        <_>
          9 16 3 4 -1.</_>
        <_>
          9 18 3 2 2.</_></rects>
      <tilted>0</tilted></_>
    <_>
      <rects>
        <_>
          9 19 3 5 -1.</_>
        <_>
          10 19 1 5 3.</_></rects>
      <tilted>0</tilted></_>
    <_>
      <rects>
        <_>
          10 6 1 6 -1.</_>
        <_>
          10 9 1 3 2.</_></rects>
      <tilted>0</tilted></_>
    <_>
      <rects>
        <_>
          10 8 1 6 -1.</_>
        <_>
          10 10 1 2 3.</_></rects>
      <tilted>0</tilted></_>
    <_>
      <rects>
        <_>
          10 8 4 5 -1.</_>
        <_>
          12 8 2 5 2.</_></rects>
      <tilted>0</tilted></_>
    <_>
      <rects>
        <_>
          10 9 1 6 -1.</_>
        <_>
          10 11 1 2 3.</_></rects>
      <tilted>0</tilted></_>
    <_>
      <rects>
        <_>
          10 13 10 1 -1.</_>
        <_>
          15 13 5 1 2.</_></rects>
      <tilted>0</tilted></_>
    <_>
      <rects>
        <_>
          11 0 2 18 -1.</_>
        <_>
          11 6 2 6 3.</_></rects>
      <tilted>0</tilted></_>
    <_>
      <rects>
        <_>
          11 1 2 18 -1.</_>
        <_>
          11 7 2 6 3.</_></rects>
      <tilted>0</tilted></_>
    <_>
      <rects>
        <_>
          11 7 3 2 -1.</_>
        <_>
          11 8 3 1 2.</_></rects>
      <tilted>0</tilted></_>
    <_>
      <rects>
        <_>
          11 14 2 2 -1.</_>
        <_>
          11 15 2 1 2.</_></rects>
      <tilted>0</tilted></_>
    <_>
      <rects>
        <_>
          12 7 1 6 -1.</_>
        <_>
          12 9 1 2 3.</_></rects>
      <tilted>0</tilted></_>
    <_>
      <rects>
        <_>
          13 1 8 2 -1.</_>
        <_>
          13 1 4 1 2.</_>
        <_>
          17 2 4 1 2.</_></rects>
      <tilted>0</tilted></_>
    <_>
      <rects>
        <_>
          13 11 1 3 -1.</_>
        <_>
          13 12 1 1 3.</_></rects>
      <tilted>0</tilted></_>
    <_>
      <rects>
        <_>
          13 11 4 2 -1.</_>
        <_>
          13 11 2 1 2.</_>
        <_>
          15 12 2 1 2.</_></rects>
      <tilted>0</tilted></_>
    <_>
      <rects>
        <_>
          16 0 4 2 -1.</_>
        <_>
          16 0 2 1 2.</_>
        <_>
          18 1 2 1 2.</_></rects>
      <tilted>0</tilted></_>
    <_>
      <rects>
        <_>
          16 11 2 1 -1.</_>
        <_>
          17 11 1 1 2.</_></rects>
      <tilted>0</tilted></_>
    <_>
      <rects>
        <_>
          16 12 2 1 -1.</_>
        <_>
          17 12 1 1 2.</_></rects>
      <tilted>0</tilted></_>
    <_>
      <rects>
        <_>
          16 19 3 1 -1.</_>
        <_>
          17 19 1 1 3.</_></rects>
      <tilted>0</tilted></_>
    <_>
      <rects>
        <_>
          17 0 2 4 -1.</_>
        <_>
          17 0 1 2 2.</_>
        <_>
          18 2 1 2 2.</_></rects>
      <tilted>0</tilted></_>
    <_>
      <rects>
        <_>
          18 10 6 2 -1.</_>
        <_>
          21 10 3 2 2.</_></rects>
      <tilted>0</tilted></_>
    <_>
      <rects>
        <_>
          19 4 3 9 -1.</_>
        <_>
          20 4 1 9 3.</_></rects>
      <tilted>0</tilted></_>
    <_>
      <rects>
        <_>
          20 4 1 6 -1.</_>
        <_>
          20 6 1 2 3.</_></rects>
      <tilted>0</tilted></_>
    <_>
      <rects>
        <_>
          20 5 4 2 -1.</_>
        <_>
          20 5 2 1 2.</_>
        <_>
          22 6 2 1 2.</_></rects>
      <tilted>0</tilted></_>
    <_>
      <rects>
        <_>
          20 16 2 4 -1.</_>
        <_>
          20 16 1 2 2.</_>
        <_>
          21 18 1 2 2.</_></rects>
      <tilted>0</tilted></_>
    <_>
      <rects>
        <_>
          20 17 2 6 -1.</_>
        <_>
          21 17 1 6 2.</_></rects>
      <tilted>0</tilted></_>
    <_>
      <rects>
        <_>
          21 0 2 2 -1.</_>
        <_>
          21 0 1 1 2.</_>
        <_>
          22 1 1 1 2.</_></rects>
      <tilted>0</tilted></_>
    <_>
      <rects>
        <_>
          21 12 3 7 -1.</_>
        <_>
          22 12 1 7 3.</_></rects>
      <tilted>0</tilted></_>
    <_>
      <rects>
        <_>
          22 2 2 12 -1.</_>
        <_>
          22 6 2 4 3.</_></rects>
      <tilted>0</tilted></_>
    <_>
      <rects>
        <_>
          22 10 1 6 -1.</_>
        <_>
          22 12 1 2 3.</_></rects>
      <tilted>0</tilted></_>
    <_>
      <rects>
        <_>
          22 18 2 3 -1.</_>
        <_>
          22 19 2 1 3.</_></rects>
      <tilted>0</tilted></_></features></cascade>
</opencv_storage>
